{
  "version": "1",
  "torch_version": "2.12.0",
  "cases": [
    {
      "name": "linear_2x3_4",
      "kind": "linear",
      "in_features": 3,
      "out_features": 4,
      "weight": [
        [
          0.2974873483181,
          -0.2548298239707947,
          -0.11192598193883896
        ],
        [
          0.2709902822971344,
          -0.5435388088226318,
          0.3462469279766083
        ],
        [
          -0.11877556145191193,
          0.2937234044075012,
          0.08026149123907089
        ],
        [
          -0.07069316506385803,
          0.16013438999652863,
          0.02848171815276146
        ]
      ],
      "bias": [
        0.2108645886182785,
        -0.2249939739704132,
        -0.04209389165043831,
        -0.05197730287909508
      ],
      "input": [
        [
          -1.0276086330413818,
          -0.563052773475647,
          -0.8922905325889587
        ],
        [
          -0.05825017765164375,
          -0.19550958275794983,
          -0.9656359553337097
        ]
      ],
      "forward": [
        [
          0.1485171616077423,
          -0.5063777565956116,
          -0.15703743696212769,
          -0.09491047263145447
        ],
        [
          0.3514373302459717,
          -0.4688606262207031,
          -0.17010430991649628,
          -0.10667019337415695
        ]
      ],
      "x_grad": [
        [
          0.3790088891983032,
          -0.34451085329055786,
          0.34306415915489197
        ],
        [
          0.3790088891983032,
          -0.34451085329055786,
          0.34306415915489197
        ]
      ]
    },
    {
      "name": "cross_entropy_5x3",
      "kind": "cross_entropy",
      "logits": [
        [
          0.39229682087898254,
          -0.223564013838768,
          -0.31950026750564575
        ],
        [
          -1.2050371170043945,
          1.0444635152816772,
          -0.6332277059555054
        ],
        [
          0.5731067657470703,
          0.540947437286377,
          -0.39190584421157837
        ],
        [
          -1.0426788330078125,
          1.318617343902588,
          0.747639000415802
        ],
        [
          -1.3264806270599365,
          -1.2412971258163452,
          -0.10280492901802063
        ]
      ],
      "targets": [
        0,
        2,
        1,
        0,
        2
      ],
      "loss": 1.3751071691513062,
      "logits_grad": [
        [
          -0.10152330249547958,
          0.053194720298051834,
          0.048328567296266556
        ],
        [
          0.016320575028657913,
          0.15476803481578827,
          -0.1710885912179947
        ],
        [
          0.08513063192367554,
          -0.11756356060504913,
          0.032432932406663895
        ],
        [
          -0.18863381445407867,
          0.12053491175174713,
          0.06809889525175095
        ],
        [
          0.036439310759305954,
          0.0396793857216835,
          -0.07611870020627975
        ]
      ]
    },
    {
      "name": "layernorm_2x4",
      "kind": "layernorm",
      "normalized_shape": [
        4
      ],
      "weight": [
        1.0,
        1.0,
        1.0,
        1.0
      ],
      "bias": [
        0.0,
        0.0,
        0.0,
        0.0
      ],
      "input": [
        [
          0.8032760620117188,
          0.17483338713645935,
          0.08897809684276581,
          -0.6137180328369141
        ],
        [
          0.04618244990706444,
          -1.3682591915130615,
          0.3374950885772705,
          1.0111159086227417
        ]
      ],
      "forward": [
        [
          1.3736721277236938,
          0.12242981791496277,
          -0.04850983992218971,
          -1.4475923776626587
        ],
        [
          0.04558824002742767,
          -1.5848478078842163,
          0.3813862204551697,
          1.157873272895813
        ]
      ]
    },
    {
      "name": "softmax_3x5_dim_minus1",
      "kind": "softmax",
      "input": [
        [
          -1.605276346206665,
          0.23248571157455444,
          2.239870071411133,
          0.8472937941551208,
          1.2006442546844482
        ],
        [
          -0.4015503227710724,
          -1.4260196685791016,
          0.903931736946106,
          0.8557155728340149,
          0.6888809204101562
        ],
        [
          0.8849856853485107,
          1.7706429958343506,
          -0.08094292879104614,
          0.051263898611068726,
          -0.8687565326690674
        ]
      ],
      "dim": -1,
      "forward": [
        [
          0.012164197862148285,
          0.07642111927270889,
          0.568865180015564,
          0.1413257122039795,
          0.20122377574443817
        ],
        [
          0.08665657043457031,
          0.03110857680439949,
          0.31971657276153564,
          0.30466678738594055,
          0.2578515410423279
        ],
        [
          0.22661545872688293,
          0.5494467616081238,
          0.08625655621290207,
          0.09844842553138733,
          0.0392327681183815
        ]
      ]
    },
    {
      "name": "relu_4x5",
      "kind": "relu",
      "input": [
        [
          1.8423298597335815,
          0.5188871622085571,
          -1.7119216918945312,
          -1.701379418373108,
          -0.1296626776456833
        ],
        [
          -0.6017656922340393,
          0.14499856531620026,
          -0.14982716739177704,
          2.614577054977417,
          -0.4340229630470276
        ],
        [
          0.35233551263809204,
          -0.0645522028207779,
          1.4829323291778564,
          0.49403807520866394,
          0.24921877682209015
        ],
        [
          1.7470314502716064,
          0.7447769045829773,
          0.0316568948328495,
          -1.1724143028259277,
          -1.506940245628357
        ]
      ],
      "forward": [
        [
          1.8423298597335815,
          0.5188871622085571,
          0.0,
          0.0,
          0.0
        ],
        [
          0.0,
          0.14499856531620026,
          0.0,
          2.614577054977417,
          0.0
        ],
        [
          0.35233551263809204,
          0.0,
          1.4829323291778564,
          0.49403807520866394,
          0.24921877682209015
        ],
        [
          1.7470314502716064,
          0.7447769045829773,
          0.0316568948328495,
          0.0,
          0.0
        ]
      ],
      "x_grad": [
        [
          1.0,
          1.0,
          0.0,
          0.0,
          0.0
        ],
        [
          0.0,
          1.0,
          0.0,
          1.0,
          0.0
        ],
        [
          1.0,
          0.0,
          1.0,
          1.0,
          1.0
        ],
        [
          1.0,
          1.0,
          1.0,
          0.0,
          0.0
        ]
      ]
    }
  ]
}